digraph Tree {
node [shape=box] ;
0 [label="Height <= 0.123\ngini = 0.878\nsamples = 3771\nvalue = [37, 101, 254, 389, 566, 683, 622, 463, 245, 194\n117, 100]"] ;
1 [label="Whole Weight <= 0.17\ngini = 0.841\nsamples = 1258\nvalue = [37, 101, 232, 307, 248, 142, 78, 52, 27, 18, 8\n8]"] ;
0 -> 1 [labeldistance=2.5, labelangle=45, headlabel="True"] ;
2 [label="Whole Weight <= 0.11\ngini = 0.777\nsamples = 248\nvalue = [36, 75, 73, 34, 16, 7, 4, 2, 0, 1, 0, 0]"] ;
1 -> 2 ;
3 [label="gini = 0.72\nsamples = 123\nvalue = [31, 50, 25, 11, 6, 0, 0, 0, 0, 0, 0, 0]"] ;
2 -> 3 ;
4 [label="gini = 0.766\nsamples = 125\nvalue = [5, 25, 48, 23, 10, 7, 4, 2, 0, 1, 0, 0]"] ;
2 -> 4 ;
5 [label="I <= 0.5\ngini = 0.822\nsamples = 1010\nvalue = [1, 26, 159, 273, 232, 135, 74, 50, 27, 17, 8, 8]"] ;
1 -> 5 ;
6 [label="Whole Weight <= 0.399\ngini = 0.85\nsamples = 375\nvalue = [0, 3, 22, 57, 79, 80, 52, 35, 23, 11, 6, 7]"] ;
5 -> 6 ;
7 [label="gini = 0.848\nsamples = 166\nvalue = [0, 3, 15, 29, 22, 40, 27, 14, 9, 5, 1, 1]"] ;
6 -> 7 ;
8 [label="Length <= 0.488\ngini = 0.839\nsamples = 209\nvalue = [0, 0, 7, 28, 57, 40, 25, 21, 14, 6, 5, 6]"] ;
6 -> 8 ;
9 [label="gini = 0.807\nsamples = 122\nvalue = [0, 0, 5, 21, 41, 18, 16, 10, 5, 4, 1, 1]"] ;
8 -> 9 ;
10 [label="gini = 0.852\nsamples = 87\nvalue = [0, 0, 2, 7, 16, 22, 9, 11, 9, 2, 4, 5]"] ;
8 -> 10 ;
11 [label="Length <= 0.442\ngini = 0.769\nsamples = 635\nvalue = [1, 23, 137, 216, 153, 55, 22, 15, 4, 6, 2, 1]"] ;
5 -> 11 ;
12 [label="Height <= 0.102\ngini = 0.742\nsamples = 437\nvalue = [1, 23, 125, 164, 74, 24, 13, 6, 3, 2, 2, 0]"] ;
11 -> 12 ;
13 [label="Length <= 0.382\ngini = 0.713\nsamples = 320\nvalue = [1, 21, 100, 129, 46, 8, 7, 5, 1, 1, 1, 0]"] ;
12 -> 13 ;
14 [label="gini = 0.701\nsamples = 176\nvalue = [1, 14, 64, 68, 17, 4, 4, 3, 1, 0, 0, 0]"] ;
13 -> 14 ;
15 [label="gini = 0.714\nsamples = 144\nvalue = [0, 7, 36, 61, 29, 4, 3, 2, 0, 1, 1, 0]"] ;
13 -> 15 ;
16 [label="gini = 0.785\nsamples = 117\nvalue = [0, 2, 25, 35, 28, 16, 6, 1, 2, 1, 1, 0]"] ;
12 -> 16 ;
17 [label="gini = 0.739\nsamples = 198\nvalue = [0, 0, 12, 52, 79, 31, 9, 9, 1, 4, 0, 1]"] ;
11 -> 17 ;
18 [label="Height <= 0.153\ngini = 0.847\nsamples = 2513\nvalue = [0, 0, 22, 82, 318, 541, 544, 411, 218, 176, 109\n92]"] ;
0 -> 18 [labeldistance=2.5, labelangle=-45, headlabel="False"] ;
19 [label="Length <= 0.527\ngini = 0.838\nsamples = 1179\nvalue = [0, 0, 18, 71, 242, 295, 220, 120, 71, 62, 43, 37]"] ;
18 -> 19 ;
20 [label="I <= 0.5\ngini = 0.862\nsamples = 511\nvalue = [0, 0, 14, 51, 110, 99, 75, 43, 38, 36, 22, 23]"] ;
19 -> 20 ;
21 [label="Whole Weight <= 0.529\ngini = 0.875\nsamples = 326\nvalue = [0, 0, 7, 26, 46, 56, 61, 31, 33, 28, 19, 19]"] ;
20 -> 21 ;
22 [label="gini = 0.834\nsamples = 85\nvalue = [0, 0, 4, 5, 7, 22, 21, 9, 8, 6, 2, 1]"] ;
21 -> 22 ;
23 [label="F <= 0.5\ngini = 0.881\nsamples = 241\nvalue = [0, 0, 3, 21, 39, 34, 40, 22, 25, 22, 17, 18]"] ;
21 -> 23 ;
24 [label="gini = 0.871\nsamples = 134\nvalue = [0, 0, 2, 14, 28, 23, 17, 12, 11, 10, 11, 6]"] ;
23 -> 24 ;
25 [label="gini = 0.874\nsamples = 107\nvalue = [0, 0, 1, 7, 11, 11, 23, 10, 14, 12, 6, 12]"] ;
23 -> 25 ;
26 [label="gini = 0.793\nsamples = 185\nvalue = [0, 0, 7, 25, 64, 43, 14, 12, 5, 8, 3, 4]"] ;
20 -> 26 ;
27 [label="Whole Weight <= 0.785\ngini = 0.808\nsamples = 668\nvalue = [0, 0, 4, 20, 132, 196, 145, 77, 33, 26, 21, 14]"] ;
19 -> 27 ;
28 [label="gini = 0.756\nsamples = 172\nvalue = [0, 0, 1, 9, 47, 63, 27, 12, 8, 3, 2, 0]"] ;
27 -> 28 ;
29 [label="Whole Weight <= 0.84\ngini = 0.817\nsamples = 496\nvalue = [0, 0, 3, 11, 85, 133, 118, 65, 25, 23, 19, 14]"] ;
27 -> 29 ;
30 [label="gini = 0.787\nsamples = 85\nvalue = [0, 0, 1, 2, 9, 20, 29, 13, 2, 6, 2, 1]"] ;
29 -> 30 ;
31 [label="Whole Weight <= 0.91\ngini = 0.819\nsamples = 411\nvalue = [0, 0, 2, 9, 76, 113, 89, 52, 23, 17, 17, 13]"] ;
29 -> 31 ;
32 [label="gini = 0.805\nsamples = 115\nvalue = [0, 0, 2, 1, 32, 30, 20, 13, 4, 7, 3, 3]"] ;
31 -> 32 ;
33 [label="Whole Weight <= 0.984\ngini = 0.818\nsamples = 296\nvalue = [0, 0, 0, 8, 44, 83, 69, 39, 19, 10, 14, 10]"] ;
31 -> 33 ;
34 [label="gini = 0.767\nsamples = 103\nvalue = [0, 0, 0, 4, 13, 38, 26, 12, 3, 3, 3, 1]"] ;
33 -> 34 ;
35 [label="gini = 0.837\nsamples = 193\nvalue = [0, 0, 0, 4, 31, 45, 43, 27, 16, 7, 11, 9]"] ;
33 -> 35 ;
36 [label="Whole Weight <= 1.524\ngini = 0.833\nsamples = 1334\nvalue = [0, 0, 4, 11, 76, 246, 324, 291, 147, 114, 66, 55]"] ;
18 -> 36 ;
37 [label="Length <= 0.613\ngini = 0.834\nsamples = 1101\nvalue = [0, 0, 4, 11, 73, 229, 272, 204, 120, 88, 55, 45]"] ;
36 -> 37 ;
38 [label="Whole Weight <= 1.111\ngini = 0.849\nsamples = 552\nvalue = [0, 0, 3, 8, 50, 121, 124, 71, 60, 52, 32, 31]"] ;
37 -> 38 ;
39 [label="Height <= 0.168\ngini = 0.856\nsamples = 408\nvalue = [0, 0, 2, 7, 39, 94, 77, 51, 47, 36, 31, 24]"] ;
38 -> 39 ;
40 [label="Length <= 0.572\ngini = 0.842\nsamples = 274\nvalue = [0, 0, 1, 5, 31, 71, 52, 37, 31, 21, 16, 9]"] ;
39 -> 40 ;
41 [label="gini = 0.862\nsamples = 146\nvalue = [0, 0, 1, 3, 16, 29, 27, 19, 20, 13, 11, 7]"] ;
40 -> 41 ;
42 [label="gini = 0.807\nsamples = 128\nvalue = [0, 0, 0, 2, 15, 42, 25, 18, 11, 8, 5, 2]"] ;
40 -> 42 ;
43 [label="gini = 0.869\nsamples = 134\nvalue = [0, 0, 1, 2, 8, 23, 25, 14, 16, 15, 15, 15]"] ;
39 -> 43 ;
44 [label="gini = 0.81\nsamples = 144\nvalue = [0, 0, 1, 1, 11, 27, 47, 20, 13, 16, 1, 7]"] ;
38 -> 44 ;
45 [label="Height <= 0.162\ngini = 0.809\nsamples = 549\nvalue = [0, 0, 1, 3, 23, 108, 148, 133, 60, 36, 23, 14]"] ;
37 -> 45 ;
46 [label="gini = 0.79\nsamples = 129\nvalue = [0, 0, 0, 0, 9, 38, 24, 35, 10, 7, 5, 1]"] ;
45 -> 46 ;
47 [label="Height <= 0.188\ngini = 0.808\nsamples = 420\nvalue = [0, 0, 1, 3, 14, 70, 124, 98, 50, 29, 18, 13]"] ;
45 -> 47 ;
48 [label="Whole Weight <= 1.382\ngini = 0.794\nsamples = 323\nvalue = [0, 0, 1, 3, 11, 57, 102, 77, 36, 18, 10, 8]"] ;
47 -> 48 ;
49 [label="Whole Weight <= 1.253\ngini = 0.785\nsamples = 241\nvalue = [0, 0, 1, 2, 8, 46, 82, 51, 27, 13, 8, 3]"] ;
48 -> 49 ;
50 [label="gini = 0.78\nsamples = 125\nvalue = [0, 0, 0, 2, 4, 19, 44, 29, 14, 8, 3, 2]"] ;
49 -> 50 ;
51 [label="gini = 0.785\nsamples = 116\nvalue = [0, 0, 1, 0, 4, 27, 38, 22, 13, 5, 5, 1]"] ;
49 -> 51 ;
52 [label="gini = 0.8\nsamples = 82\nvalue = [0, 0, 0, 1, 3, 11, 20, 26, 9, 5, 2, 5]"] ;
48 -> 52 ;
53 [label="gini = 0.84\nsamples = 97\nvalue = [0, 0, 0, 0, 3, 13, 22, 21, 14, 11, 8, 5]"] ;
47 -> 53 ;
54 [label="Length <= 0.692\ngini = 0.775\nsamples = 233\nvalue = [0, 0, 0, 0, 3, 17, 52, 87, 27, 26, 11, 10]"] ;
36 -> 54 ;
55 [label="gini = 0.795\nsamples = 139\nvalue = [0, 0, 0, 0, 3, 13, 27, 50, 16, 12, 9, 9]"] ;
54 -> 55 ;
56 [label="gini = 0.736\nsamples = 94\nvalue = [0, 0, 0, 0, 0, 4, 25, 37, 11, 14, 2, 1]"] ;
54 -> 56 ;
}